{"threshold": 0.26999999999999996, "mean": [0.14981698092905063, 53.59139231339242, 0.2644045606834217, 0.16160359521152326, 0.23943665428358374, 55.62602192221336, 0.7615792806287414, 29.915414087980697, 1.2748376553498426, 30.50883209358141, 0.002323955251801097, 0.08888446837121132, 598.1409661746719], "scale": [0.0005778334794868992, 27.440604421891067, 0.0998176186927325, 0.04964895555213377, 0.04819835164956413, 11.098632055330546, 0.07896010142668847, 8.109243686521522, 0.5558114017882516, 10.263662757835789, 0.011481287904335922, 0.06273629647257165, 347.113495701057], "type": "gbm", "learning_rate": 0.08, "init": 0.0, "trees": [{"children_left": [1, 2, 3, -1, -1, 6, -1, -1, 9, -1, 11, -1, -1], "children_right": [8, 5, 4, -1, -1, 7, -1, -1, 10, -1, 12, -1, -1], "feature": [10, 6, 9, -2, -2, 0, -2, -2, 8, -2, 11, -2, -2], "threshold": [-0.20184537023305893, 0.9809525012969971, -1.6572551131248474, -2.0, -2.0, -0.1076493114233017, -2.0, -2.0, 0.4796871691942215, -2.0, 0.5530892312526703, -2.0, -2.0], "value": [2.802504722354764e-17, 0.32516313862804413, 0.4374427550833488, -2.1914893617021276, 1.8392857142857135, -0.4186893203883495, 1.8392857142857142, -2.191489361702127, -0.47226074895977793, -2.1914893617021263, 0.45631067961165045, 1.8392857142857142, 1.8392857142857142]}, {"children_left": [1, 2, 3, -1, -1, 6, -1, -1, 9, -1, -1], "children_right": [8, 5, 4, -1, -1, 7, -1, -1, 10, -1, -1], "feature": [10, 6, 9, -2, -2, 0, -2, -2, 8, -2, -2], "threshold": [-0.20184537023305893, 0.9809525012969971, -1.6572551131248474, -2.0, -2.0, -0.1076493114233017, -2.0, -2.0, 0.4796871691942215, -2.0, -2.0], "value": [0.0002637821299816165, 0.2994382961938089, 0.4027439778710726, -1.999884946708058, 1.724446802681362, -0.38496184491806296, 1.7244468026813615, -1.9998849467080575, -0.43425158353414806, -1.9998849467080573, 1.7244468026813615]}, {"children_left": [1, 2, 3, -1, -1, 6, -1, -1, 9, -1, 11, -1, -1], "children_right": [8, 5, 4, -1, -1, 7, -1, -1, 10, -1, 12, -1, -1], "feature": [10, 6, 9, -2, -2, 1, -2, -2, 8, -2, 12, -2, -2], "threshold": [-0.20184537023305893, 0.9809525012969971, -1.6572551131248474, -2.0, -2.0, -0.837949126958847, -2.0, -2.0, 0.4796871691942215, -2.0, -0.8493314683437347, -2.0, -2.0], "value": [0.0004312674949308628, 0.27583561449434657, 0.37093340012185655, -1.8520535895076213, 1.6310925909354788, -0.3541872152879064, 1.6310925909354783, -1.8520535895076207, -0.39956076028993404, -1.8520535895076204, 0.38691401974521183, 1.6310925909354783, 1.6310925909354783]}, {"children_left": [1, 2, 3, -1, -1, 6, -1, -1, 9, -1, 11, -1, -1], "children_right": [8, 5, 4, -1, -1, 7, -1, -1, 10, -1, 12, -1, -1], "feature": [10, 6, 9, -2, -2, 12, -2, -2, 8, -2, 1, -2, -2], "threshold": [-0.20184537023305893, 0.9809525012969971, -1.6572551131248474, -2.0, -2.0, -0.8973852396011353, -2.0, -2.0, 0.4796871691942215, -2.0, -0.7960839569568634, -2.0, -2.0], "value": [0.000535538392226918, 0.25415973753324417, 0.3417367855451714, -1.7347168127347674, 1.5538894850205023, -0.32603820554577495, 1.5538894850205027, -1.7347168127347676, -0.36782341750305964, -1.7347168127347674, 0.3564535897565421, 1.5538894850205027, 1.5538894850205027]}, {"children_left": [1, 2, 3, -1, -1, 6, -1, -1, 9, -1, 11, -1, -1], "children_right": [8, 5, 4, -1, -1, 7, -1, -1, 10, -1, 12, -1, -1], "feature": [10, 6, 9, -2, -2, 0, -2, -2, 8, -2, 2, -2, -2], "threshold": [-0.20184537023305893, 0.9809525012969971, -1.6572551131248474, -2.0, -2.0, -0.1076493114233017, -2.0, -2.0, 0.4796871691942215, -2.0, -0.3346603512763977, -2.0, -2.0], "value": [0.0005971571690203675, 0.23423845183828665, 0.31491535471316723, -1.639513538445356, 1.4891425804430787, -0.3002460297077975, 1.4891425804430791, -1.6395135384453563, -0.3387390088982474, -1.6395135384453554, 0.32847263040288577, 1.4891425804430791, 1.4891425804430791]}, {"children_left": [1, 2, 3, -1, -1, 6, -1, -1, 9, -1, 11, -1, -1], "children_right": [8, 5, 4, -1, -1, 7, -1, -1, 10, -1, 12, -1, -1], "feature": [10, 6, 9, -2, -2, 1, -2, -2, 8, -2, 7, -2, -2], "threshold": [-0.20184537023305893, 0.9809525012969971, -1.6572551131248474, -2.0, -2.0, -0.837949126958847, -2.0, -2.0, 0.4796871691942215, -2.0, -0.18346879910677671, -2.0, -2.0], "value": [0.0006294805903907789, 0.21591861141921437, 0.2902584678323591, -1.5609022837455149, 1.4342075371884524, -0.27658293731786887, 1.4342075371884528, -1.5609022837455144, -0.3120523522800439, -1.5609022837455149, 0.3027508403976535, 1.4342075371884528, 1.4342075371884528]}, {"children_left": [1, 2, 3, -1, -1, 6, -1, -1, 9, -1, -1], "children_right": [8, 5, 4, -1, -1, 7, -1, -1, 10, -1, -1], "feature": [10, 6, 9, -2, -2, 8, -2, -2, 8, -2, -2], "threshold": [-0.20184537023305893, 0.9809525012969971, -1.6572551131248474, -2.0, -2.0, 0.4443080723285675, -2.0, -2.0, 0.4796871691942215, -2.0, -2.0], "value": [0.0006414806531820431, 0.19906308308529674, 0.26757854123816427, -1.4950578009659115, 1.387139856136975, -0.2548518271774504, -1.4950578009659112, 1.3871398561369752, -0.2875422752601279, -1.4950578009659121, 1.387139856136975]}, {"children_left": [1, 2, 3, -1, -1, 6, -1, -1, 9, -1, -1], "children_right": [8, 5, 4, -1, -1, 7, -1, -1, 10, -1, -1], "feature": [10, 6, 9, -2, -2, 4, -2, -2, 8, -2, -2], "threshold": [-0.20184537023305893, 0.9809525012969971, -1.6572551131248474, -2.0, -2.0, -0.3275661775842309, -2.0, -2.0, 0.4796871691942215, -2.0, -2.0], "value": [0.0006393415145797066, 0.1835484065212656, 0.24670734806611716, -1.4392505157831463, 1.3464764408770946, -0.23487958121337563, 1.3464764408770944, -1.4392505157831466, -0.26501430051894004, -1.439250515783146, 1.3464764408770946]}, {"children_left": [1, 2, 3, -1, -1, 6, -1, -1, 9, -1, -1], "children_right": [8, 5, 4, -1, -1, 7, -1, -1, 10, -1, -1], "feature": [10, 6, 9, -2, -2, 3, -2, -2, 8, -2, -2], "threshold": [-0.20184537023305893, 0.9809525012969971, -1.6572551131248474, -2.0, -2.0, 0.8984751254320145, -2.0, -2.0, 0.4796871691942215, -2.0, -2.0], "value": [0.0006274113029459958, 0.1692629578666513, 0.22749321904813977, -1.3914782115207405, 1.311094495273563, -0.2165125224607089, -1.3914782115207405, 1.311094495273563, -0.24429564442053084, -1.3914782115207407, 1.3110944952735628]}, {"children_left": [1, 2, 3, -1, -1, 6, -1, -1, 9, -1, 11, -1, -1], "children_right": [8, 5, 4, -1, -1, 7, -1, -1, 10, -1, 12, -1, -1], "feature": [10, 6, 9, -2, -2, 2, -2, -2, 8, -2, 4, -2, -2], "threshold": [-0.20184537023305893, 0.9809525012969971, -1.6572551131248474, -2.0, -2.0, 1.905693769454956, -2.0, -2.0, 0.4796871691942215, -2.0, -0.3043811172246933, -2.0, -2.0], "value": [0.0006087937862298813, 0.15610547476847997, 0.2097988539578458, -1.350237537591564, 1.2801174976830683, -0.19961316236106896, -1.350237537591564, 1.2801174976830685, -0.22523162383084772, -1.3502375375915652, 0.2188217083119817, 1.2801174976830685, 1.2801174976830685]}, {"children_left": [1, 2, 3, -1, -1, 6, -1, -1, 9, -1, -1], "children_right": [8, 5, 4, -1, -1, 7, -1, -1, 10, -1, -1], "feature": [10, 6, 9, -2, -2, 4, -2, -2, 8, -2, -2], "threshold": [-0.20184537023305893, 0.9809525012969971, -1.6572551131248474, -2.0, -2.0, -0.3275661775842309, -2.0, -2.0, 0.4796871691942215, -2.0, -2.0], "value": [0.0005857292466818945, 0.14398384700884193, 0.19349956312193314, -1.3143769048846399, 1.2528508400674627, -0.18405777224038708, 1.252850840067462, -1.31437690488464, -0.2076829655983599, -1.31437690488464, 1.252850840067462]}, {"children_left": [1, 2, 3, -1, -1, 6, -1, -1, 9, -1, -1], "children_right": [8, 5, 4, -1, -1, 7, -1, -1, 10, -1, -1], "feature": [10, 6, 9, -2, -2, 3, -2, -2, 8, -2, -2], "threshold": [-0.20184537023305893, 0.9809525012969971, -1.6572551131248474, -2.0, -2.0, 0.8984751254320145, -2.0, -2.0, 0.4796871691942215, -2.0, -2.0], "value": [0.0005598469808740748, 0.1328141069412187, 0.1784818220628704, -1.282998740674546, 1.228736727979261, -0.16973450573972396, -1.2829987406745458, 1.2287367279792611, -0.19152372105676932, -1.2829987406745464, 1.2287367279792611]}, {"children_left": [1, 2, 3, -1, -1, 6, -1, -1, 9, -1, -1], "children_right": [8, 5, 4, -1, -1, 7, -1, -1, 10, -1, -1], "feature": [10, 6, 9, -2, -2, 8, -2, -2, 8, -2, -2], "threshold": [-0.20184537023305893, 0.9809525012969971, -1.6572551131248474, -2.0, -2.0, 0.4443080723285675, -2.0, -2.0, 0.4796871691942215, -2.0, -2.0], "value": [0.0005323369330485028, 0.12251957373611941, 0.16464206098507816, -1.2553927479861642, 1.2073219179572443, -0.15654190428823284, -1.2553927479861644, 1.2073219179572443, -0.17663960223331615, -1.2553927479861635, 1.2073219179572443]}, {"children_left": [1, 2, 3, -1, -1, 6, -1, -1, 9, -1, -1], "children_right": [8, 5, 4, -1, -1, 7, -1, -1, 10, -1, -1], "feature": [10, 6, 9, -2, -2, 0, -2, -2, 8, -2, -2], "threshold": [-0.20184537023305893, 0.9809525012969971, -1.6572551131248474, -2.0, -2.0, -0.1076493114233017, -2.0, -2.0, 0.4796871691942215, -2.0, -2.0], "value": [0.0005040688859800317, 0.11303011857975975, 0.151885635088046, -1.2309892398329687, 1.1882342110719357, -0.1443876782876368, 1.1882342110719357, -1.2309892398329685, -0.16292662233593824, -1.230989239832969, 1.1882342110719357]}, {"children_left": [1, 2, 3, -1, -1, 6, -1, -1, 9, -1, -1], "children_right": [8, 5, 4, -1, -1, 7, -1, -1, 10, -1, -1], "feature": [10, 6, 9, -2, -2, 3, -2, -2, 8, -2, -2], "threshold": [-0.20184537023305893, 0.9809525012969971, -1.6572551131248474, -2.0, -2.0, 0.8984751254320145, -2.0, -2.0, 0.4796871691942215, -2.0, -2.0], "value": [0.0004756767731508124, 0.10428152685947153, 0.14012593739962653, -1.2093258208382154, 1.171165042892961, -0.1331876929690556, -1.2093258208382154, 1.1711650428929612, -0.1502899626379342, -1.2093258208382158, 1.171165042892961]}, {"children_left": [1, 2, 3, -1, -1, 6, -1, -1, 9, -1, -1], "children_right": [8, 5, 4, -1, -1, 7, -1, -1, 10, -1, -1], "feature": [10, 6, 9, -2, -2, 8, -2, -2, 8, -2, -2], "threshold": [-0.20184537023305893, 0.9809525012969971, -1.6572551131248474, -2.0, -2.0, 0.4443080723285675, -2.0, -2.0, 0.4796871691942215, -2.0, -2.0], "value": [0.00044761927565650485, 0.09621493949384718, 0.1292836262718737, -1.1900231532170762, 1.1558563969172526, -0.12286511041057836, -1.1900231532170762, 1.1558563969172526, -0.1386430124698108, -1.190023153217076, 1.1558563969172526]}, {"children_left": [1, 2, 3, -1, -1, 6, -1, -1, 9, -1, -1], "children_right": [8, 5, 4, -1, -1, 7, -1, -1, 10, -1, -1], "feature": [10, 6, 9, -2, -2, 11, -2, -2, 8, -2, -2], "threshold": [-0.20184537023305893, 0.9809525012969971, -1.6572551131248474, -2.0, -2.0, 1.4365711510181427, -2.0, -2.0, 0.4796871691942215, -2.0, -2.0], "value": [0.0004202239778415599, 0.08877635986351856, 0.1192859468067816, -1.1727670355219246, 1.1420908353942034, -0.11334965363559894, -1.1727670355219246, 1.1420908353942032, -0.12790654480849883, -1.1727670355219246, 1.1420908353942032]}, {"children_left": [1, 2, 3, -1, -1, 6, -1, -1, 9, -1, -1], "children_right": [8, 5, 4, -1, -1, 7, -1, -1, 10, -1, -1], "feature": [10, 6, 9, -2, -2, 1, -2, -2, 8, -2, -2], "threshold": [-0.20184537023305893, 0.9809525012969971, -1.6572551131248474, -2.0, -2.0, -0.837949126958847, -2.0, -2.0, 0.4796871691942215, -2.0, -2.0], "value": [0.00039371992708951307, 0.08191621586986705, 0.11006613044983643, -1.1572949505324273, 1.1296838119613928, -0.10457696822243037, 1.1296838119613932, -1.1572949505324273, -0.1180080003707541, -1.1572949505324284, 1.1296838119613932]}, {"children_left": [1, 2, 3, -1, -1, 6, -1, -1, 9, -1, -1], "children_right": [8, 5, 4, -1, -1, 7, -1, -1, 10, -1, -1], "feature": [10, 6, 9, -2, -2, 5, -2, -2, 8, -2, -2], "threshold": [-0.20184537023305893, 0.9809525012969971, -1.6572551131248474, -2.0, -2.0, -0.4700406529009342, -2.0, -2.0, 0.4796871691942215, -2.0, -2.0], "value": [0.0003682618896601336, 0.07558896888289476, 0.10156286053104496, -1.1433858305525577, 1.1184776774849332, -0.0964880632860999, 1.1184776774849328, -1.143385830552558, -0.10888086017194246, -1.143385830552557, 1.118477677484933]}, {"children_left": [1, 2, 3, -1, -1, 6, -1, -1, 9, -1, -1], "children_right": [8, 5, 4, -1, -1, 7, -1, -1, 10, -1, -1], "feature": [10, 6, 9, -2, -2, 12, -2, -2, 8, -2, -2], "threshold": [-0.20184537023305893, 0.9809525012969971, -1.6572551131248474, -2.0, -2.0, -0.8973852396011353, -2.0, -2.0, 0.4796871691942215, -2.0, -2.0], "value": [0.00034394857888461023, 0.06975276299207699, 0.09371979410701939, -1.1308521743801838, 1.1083369581531286, -0.08902881814441639, 1.108336958153129, -1.130852174380184, -0.10046409140218032, -1.1308521743801845, 1.108336958153129]}, {"children_left": [1, 2, 3, -1, -1, 6, -1, -1, 9, -1, -1], "children_right": [8, 5, 4, -1, -1, 7, -1, -1, 10, -1, -1], "feature": [10, 6, 9, -2, -2, 4, -2, -2, 8, -2, -2], "threshold": [-0.20184537023305893, 0.9809525012969971, -1.6572551131248474, -2.0, -2.0, -0.3275661775842309, -2.0, -2.0, 0.4796871691942215, -2.0, -2.0], "value": [0.0003208364550099386, 0.06436910921658383, 0.0864851323631079, -1.1195339070629458, 1.0991446005727523, -0.08214954412913851, 1.099144600572753, -1.1195339070629458, -0.09270165493679972, -1.1195339070629458, 1.0991446005727532]}, {"children_left": [1, 2, 3, -1, -1, 6, -1, -1, 9, -1, -1], "children_right": [8, 5, 4, -1, -1, 7, -1, -1, 10, -1, -1], "feature": [10, 6, 9, -2, -2, 12, -2, -2, 8, -2, -2], "threshold": [-0.20184537023305893, 0.9809525012969971, -1.6572551131248474, -2.0, -2.0, -0.8973852396011353, -2.0, -2.0, 0.4796871691942215, -2.0, -2.0], "value": [0.0002989502365841751, 0.05940260028016004, 0.07981123326974489, -1.1092935476091816, 1.090798959680538, -0.07580459327583972, 1.090798959680539, -1.1092935476091816, -0.08554206530289508, -1.109293547609181, 1.090798959680539]}, {"children_left": [1, 2, 3, -1, -1, 6, -1, -1, 9, -1, -1], "children_right": [8, 5, 4, -1, -1, 7, -1, -1, 10, -1, -1], "feature": [10, 6, 9, -2, -2, 1, -2, -2, 8, -2, -2], "threshold": [-0.20184537023305893, 0.9809525012969971, -1.6572551131248474, -2.0, -2.0, -0.837949126958847, -2.0, -2.0, 0.4796871691942215, -2.0, -2.0], "value": [0.00027829094648222316, 0.054820652291406986, 0.07365426128599867, -1.1000123697525233, 1.0832113628738047, -0.06995200729776282, 1.083211362873805, -1.1000123697525235, -0.07893799576876559, -1.1000123697525237, 1.083211362873805]}, {"children_left": [1, 2, 3, -1, -1, 6, -1, -1, 9, -1, -1], "children_right": [8, 5, 4, -1, -1, 7, -1, -1, 10, -1, -1], "feature": [10, 6, 9, -2, -2, 1, -2, -2, 8, -2, -2], "threshold": [-0.20184537023305893, 0.9809525012969971, -1.6572551131248474, -2.0, -2.0, -0.837949126958847, -2.0, -2.0, 0.4796871691942215, -2.0, -2.0], "value": [0.00025884209397653105, 0.050593270248302256, 0.06797386975755232, -1.0915873247746999, 1.0763041252087562, -0.06455320150047918, 1.0763041252087566, -1.0915873247746999, -0.07284592260635366, -1.0915873247747008, 1.0763041252087566]}, {"children_left": [1, 2, 3, -1, -1, 6, -1, -1, 9, -1, -1], "children_right": [8, 5, 4, -1, -1, 7, -1, -1, 10, -1, -1], "feature": [10, 6, 9, -2, -2, 11, -2, -2, 8, -2, -2], "threshold": [-0.20184537023305893, 0.9809525012969971, -1.6572551131248474, -2.0, -2.0, 1.4365711510181427, -2.0, -2.0, 0.4796871691942215, -2.0, -2.0], "value": [0.00024057443701053902, 0.0466928347462902, 0.06273291233015833, -1.0839285549230324, 1.070008920696961, -0.05957267924683611, -1.0839285549230324, 1.0700089206969614, -0.06722580363122892, -1.0839285549230324, 1.0700089206969614]}, {"children_left": [1, 2, 3, -1, -1, 6, -1, -1, 9, -1, -1], "children_right": [8, 5, 4, -1, -1, 7, -1, -1, 10, -1, -1], "feature": [10, 6, 9, -2, -2, 3, -2, -2, 8, -2, -2], "threshold": [-0.20184537023305893, 0.9809525012969971, -1.6572551131248474, -2.0, -2.0, 0.8984751254320145, -2.0, -2.0, 0.4796871691942215, -2.0, -2.0], "value": [0.0002234496559109282, 0.043093907640720124, 0.05789718023830628, -1.076957368747946, 1.0642654369546385, -0.05497777331828822, -1.0769573687479457, 1.064265436954639, -0.062040786941073976, -1.0769573687479461, 1.0642654369546392]}, {"children_left": [1, 2, 3, -1, -1, 6, -1, -1, 9, -1, -1], "children_right": [8, 5, 4, -1, -1, 7, -1, -1, 10, -1, -1], "feature": [10, 6, 9, -2, -2, 3, -2, -2, 8, -2, -2], "threshold": [-0.20184537023305893, 0.9809525012969971, -1.6572551131248474, -2.0, -2.0, 0.8984751254320145, -2.0, -2.0, 0.4796871691942215, -2.0, -2.0], "value": [0.00020742318775690332, 0.039773054717593105, 0.05343516276503577, -1.0706045808113347, 1.0590202569931657, -0.0507384110967147, -1.070604580811335, 1.0590202569931666, -0.057256946415100464, -1.0706045808113345, 1.0590202569931666]}, {"children_left": [1, 2, 3, -1, -1, 6, -1, -1, 9, -1, -1], "children_right": [8, 5, 4, -1, -1, 7, -1, -1, 10, -1, -1], "feature": [10, 6, 9, -2, -2, 4, -2, -2, 8, -2, -2], "threshold": [-0.20184537023305893, 0.9809525012969971, -1.6572551131248474, -2.0, -2.0, -0.3275661775842309, -2.0, -2.0, 0.4796871691942215, -2.0, -2.0], "value": [0.00019244641042651502, 0.03670868367676297, 0.04931782852618948, -1.0648091411113625, 1.0542259243583116, -0.04682690095068773, 1.0542259243583125, -1.0648091411113627, -0.0528430410478241, -1.0648091411113627, 1.0542259243583125]}, {"children_left": [1, 2, 3, -1, -1, 6, -1, -1, 9, -1, -1], "children_right": [8, 5, 4, -1, -1, 7, -1, -1, 10, -1, -1], "feature": [10, 6, 9, -2, -2, 1, -2, -2, 8, -2, -2], "threshold": [-0.20184537023305893, 0.9809525012969971, -1.6572551131248474, -2.0, -2.0, -0.837949126958847, -2.0, -2.0, 0.4796871691942215, -2.0, -2.0], "value": [0.00017846832072848737, 0.033880895940330426, 0.04551842552842505, -1.0595169965852123, 1.049840157238387, -0.043217737580796424, 1.049840157238387, -1.059516996585212, -0.0487702956029791, -1.0595169965852116, 1.049840157238387]}, {"children_left": [1, 2, 3, -1, -1, 6, -1, -1, 9, -1, -1], "children_right": [8, 5, 4, -1, -1, 7, -1, -1, 10, -1, -1], "feature": [10, 6, 9, -2, -2, 1, -2, -2, 8, -2, -2], "threshold": [-0.20184537023305893, 0.9809525012969971, -1.6572551131248474, -2.0, -2.0, -0.837949126958847, -2.0, -2.0, 0.4796871691942215, -2.0, -2.0], "value": [0.0001654368176725354, 0.03127135097452369, 0.0420122981979974, -1.0546801398208308, 1.0458251843558446, -0.03988742438098955, 1.0458251843558444, -1.054680139820831, -0.04501220041013514, -1.0546801398208314, 1.0458251843558444]}, {"children_left": [1, 2, 3, -1, -1, 6, -1, -1, 9, -1, -1], "children_right": [8, 5, 4, -1, -1, 7, -1, -1, 10, -1, -1], "feature": [10, 6, 9, -2, -2, 3, -2, -2, 8, -2, -2], "threshold": [-0.20184537023305893, 0.9809525012969971, -1.6572551131248474, -2.0, -2.0, 0.8984751254320145, -2.0, -2.0, 0.4796871691942215, -2.0, -2.0], "value": [0.00015329967678466097, 0.0288631419624134, 0.03877671978652862, -1.0502558097786343, 1.0421471809995153, -0.03681431112234997, -1.0502558097786348, 1.0421471809995158, -0.04154432840472367, -1.0502558097786343, 1.0421471809995158]}, {"children_left": [1, 2, 3, -1, -1, 6, -1, -1, 9, -1, -1], "children_right": [8, 5, 4, -1, -1, 7, -1, -1, 10, -1, -1], "feature": [10, 6, 9, -2, -2, 12, -2, -2, 8, -2, -2], "threshold": [-0.20184537023305893, 0.9809525012969971, -1.6572551131248474, -2.0, -2.0, -0.8973852396011353, -2.0, -2.0, 0.4796871691942215, -2.0, -2.0], "value": [0.00014200528227396235, 0.026640681792373035, 0.03579073873818982, -1.0462058167091923, 1.03877578785658, -0.03397844547366309, 1.0387757878565795, -1.0462058167091923, -0.03834416774429853, -1.046205816709192, 1.0387757878565795]}, {"children_left": [1, 2, 3, -1, -1, 6, -1, -1, 9, -1, -1], "children_right": [8, 5, 4, -1, -1, 7, -1, -1, 10, -1, -1], "feature": [10, 6, 9, -2, -2, 5, -2, -2, 8, -2, -2], "threshold": [-0.20184537023305893, 0.9809525012969971, -1.6572551131248474, -2.0, -2.0, -0.4700406529009342, -2.0, -2.0, 0.4796871691942215, -2.0, -2.0], "value": [0.00013150316924711233, 0.024589598437172056, 0.03303503775571439, -1.0424959691380675, 1.0356836986659497, -0.03136143704817096, 1.03568369866595, -1.042495969138067, -0.03539096852940577, -1.042495969138067, 1.03568369866595]}, {"children_left": [1, 2, 3, -1, -1, 6, -1, -1, 9, -1, -1], "children_right": [8, 5, 4, -1, -1, 7, -1, -1, 10, -1, -1], "feature": [10, 6, 9, -2, -2, 8, -2, -2, 8, -2, -2], "threshold": [-0.20184537023305893, 0.9809525012969971, -1.6572551131248474, -2.0, -2.0, 0.4443080723285675, -2.0, -2.0, 0.4796871691942215, -2.0, -2.0], "value": [0.00012174441691937667, 0.022696638894028603, 0.030491804434942697, -1.0390955851984625, 1.032846305360592, -0.028946332814527246, -1.0390955851984625, 1.0328463053605919, -0.03266560232364401, -1.039095585198462, 1.0328463053605919]}, {"children_left": [1, 2, 3, -1, -1, 6, -1, -1, 9, -1, -1], "children_right": [8, 5, 4, -1, -1, 7, -1, -1, 10, -1, -1], "feature": [10, 6, 9, -2, -2, 8, -2, -2, 8, -2, -2], "threshold": [-0.20184537023305893, 0.9809525012969971, -1.6572551131248474, -2.0, -2.0, 0.4443080723285675, -2.0, -2.0, 0.4796871691942215, -2.0, -2.0], "value": [0.00011268192506118069, 0.020949580939282193, 0.028144612452712398, -1.0359770740365892, 1.0302413914611412, -0.02671750283719293, -1.0359770740365892, 1.0302413914611408, -0.030150433309878856, -1.0359770740365897, 1.0302413914611408]}, {"children_left": [1, 2, 3, -1, -1, 6, -1, -1, 9, -1, -1], "children_right": [8, 5, 4, -1, -1, 7, -1, -1, 10, -1, -1], "feature": [10, 6, 9, -2, -2, 2, -2, -2, 8, -2, -2], "threshold": [-0.20184537023305893, 0.9809525012969971, -1.6572551131248474, -2.0, -2.0, 1.905693769454956, -2.0, -2.0, 0.4796871691942215, -2.0, -2.0], "value": [0.00010427059913783706, 0.019337152024500606, 0.02597831239366627, -1.033115575723037, 1.0278488661518077, -0.02466053542122194, -1.033115575723037, 1.0278488661518075, -0.027829200042460516, -1.033115575723037, 1.0278488661518075]}, {"children_left": [1, 2, 3, -1, -1, 6, -1, -1, 9, -1, -1], "children_right": [8, 5, 4, -1, -1, 7, -1, -1, 10, -1, -1], "feature": [10, 6, 9, -2, -2, 4, -2, -2, 8, -2, -2], "threshold": [-0.20184537023305893, 0.9809525012969971, -1.6572551131248474, -2.0, -2.0, -0.3275661775842309, -2.0, -2.0, 0.4796871691942215, -2.0, -2.0], "value": [9.64674642942924e-05, 0.017848954705373524, 0.02397893139020357, -1.0304886502465525, 1.0256505328061432, -0.02276214083162547, 1.0256505328061432, -1.0304886502465525, -0.025686906862035067, -1.030488650246553, 1.0256505328061432]}, {"children_left": [1, 2, 3, -1, -1, 6, -1, -1, 9, -1, -1], "children_right": [8, 5, 4, -1, -1, 7, -1, -1, 10, -1, -1], "feature": [10, 6, 9, -2, -2, 12, -2, -2, 8, -2, -2], "threshold": [-0.20184537023305893, 0.9809525012969971, -1.6572551131248474, -2.0, -2.0, -0.8973852396011353, -2.0, -2.0, 0.4796871691942215, -2.0, -2.0], "value": [8.923172416643912e-05, 0.016475398051935364, 0.02213358082817964, -1.028076007872698, 1.0236298868065943, -0.021010062840682884, 1.0236298868065938, -1.0280760078726978, -0.02370972413283128, -1.0280760078726978, 1.0236298868065938]}, {"children_left": [1, 2, 3, -1, -1, 6, -1, -1, 9, -1, -1], "children_right": [8, 5, 4, -1, -1, 7, -1, -1, 10, -1, -1], "feature": [10, 6, 9, -2, -2, 5, -2, -2, 8, -2, -2], "threshold": [-0.20184537023305893, 0.9809525012969971, -1.6572551131248474, -2.0, -2.0, -0.4700406529009342, -2.0, -2.0, 0.4796871691942215, -2.0, -2.0], "value": [8.252477720971913e-05, 0.015207634539541564, 0.020430371440545686, -1.025859274515668, 1.0217719383729027, -0.019392997429610734, 1.0217719383729025, -1.0258592745156676, -0.021884896544272208, -1.0258592745156674, 1.0217719383729027]}, {"children_left": [1, 2, 3, -1, -1, 6, -1, -1, 9, -1, -1], "children_right": [8, 5, 4, -1, -1, 7, -1, -1, 10, -1, -1], "feature": [10, 6, 9, -2, -2, 3, -2, -2, 8, -2, -2], "threshold": [-0.20184537023305893, 0.9809525012969971, -1.6572551131248474, -2.0, -2.0, 0.8984751254320145, -2.0, -2.0, 0.4796871691942215, -2.0, -2.0], "value": [7.631020062982034e-05, 0.014037501965451648, 0.018858335173136644, -1.0238217868708803, 1.0200630568231799, -0.01790051803546144, -1.0238217868708805, 1.0200630568231799, -0.020200658791135213, -1.0238217868708803, 1.0200630568231799]}, {"children_left": [1, 2, 3, -1, -1, 6, -1, -1, 9, -1, -1], "children_right": [8, 5, 4, -1, -1, 7, -1, -1, 10, -1, -1], "feature": [10, 6, 9, -2, -2, 4, -2, -2, 8, -2, -2], "threshold": [-0.20184537023305893, 0.9809525012969971, -1.6572551131248474, -2.0, -2.0, -0.3275661775842309, -2.0, -2.0, 0.4796871691942215, -2.0, -2.0], "value": [7.055370992915726e-05, 0.012957469976569127, 0.017407353262279213, -1.0219484129453504, 1.018490833270378, -0.01652300679126017, 1.0184908332703781, -1.0219484129453507, -0.018646158010666998, -1.0219484129453502, 1.0184908332703781]}, {"children_left": [1, 2, 3, -1, -1, 6, -1, -1, 9, -1, -1], "children_right": [8, 5, 4, -1, -1, 7, -1, -1, 10, -1, -1], "feature": [10, 6, 9, -2, -2, 12, -2, -2, 8, -2, -2], "threshold": [-0.20184537023305893, 0.9809525012969971, -1.6572551131248474, -2.0, -2.0, -0.8973852396011353, -2.0, -2.0, 0.4796871691942215, -2.0, -2.0], "value": [6.522310043333731e-05, 0.011960590830445633, 0.016068090013643014, -1.020225394345917, 1.0170439592322744, -0.01525159125823706, 1.0170439592322746, -1.020225394345917, -0.01721138241220358, -1.020225394345917, 1.0170439592322746]}, {"children_left": [1, 2, 3, -1, -1, 6, -1, -1, 9, -1, -1], "children_right": [8, 5, 4, -1, -1, 7, -1, -1, 10, -1, -1], "feature": [10, 6, 9, -2, -2, 4, -2, -2, 8, -2, -2], "threshold": [-0.20184537023305893, 0.9809525012969971, -1.6572551131248474, -2.0, -2.0, -0.3275661775842309, -2.0, -2.0, 0.4796871691942215, -2.0, -2.0], "value": [6.028817584392195e-05, 0.011040454044586279, 0.014831931816512585, -1.0186402072759642, 1.0157121190247145, -0.014078086194425476, 1.015712119024714, -1.0186402072759642, -0.015887095585900925, -1.018640207275963, 1.015712119024714]}, {"children_left": [1, 2, 3, -1, -1, 6, -1, -1, 9, -1, -1], "children_right": [8, 5, 4, -1, -1, 7, -1, -1, 10, -1, -1], "feature": [10, 6, 9, -2, -2, 12, -2, -2, 8, -2, -2], "threshold": [-0.20184537023305893, 0.9809525012969971, -1.6572551131248474, -2.0, -2.0, -0.8973852396011353, -2.0, -2.0, 0.4796871691942215, -2.0, -2.0], "value": [5.5720667809721186e-05, 0.010191144618820393, 0.013690930968014043, -1.017181439675815, 1.0144858941322101, -0.012994939944587476, 1.01448589413221, -1.0171814396758152, -0.01466477602294386, -1.017181439675815, 1.0144858941322101]}, {"children_left": [1, 2, 3, -1, -1, 6, -1, -1, 9, -1, -1], "children_right": [8, 5, 4, -1, -1, 7, -1, -1, 10, -1, -1], "feature": [10, 6, 9, -2, -2, 11, -2, -2, 8, -2, -2], "threshold": [-0.20184537023305893, 0.9809525012969971, -1.6572551131248474, -2.0, -2.0, 1.4365711510181427, -2.0, -2.0, 0.4796871691942215, -2.0, -2.0], "value": [5.149414966355489e-05, 0.009407204542396476, 0.012637753918303997, -1.0158386823411805, 1.0133566780192125, -0.011995185072990903, -1.0158386823411805, 1.0133566780192125, -0.013536561420734252, -1.0158386823411802, 1.0133566780192125]}, {"children_left": [1, 2, 3, -1, -1, 6, -1, -1, 9, -1, -1], "children_right": [8, 5, 4, -1, -1, 7, -1, -1, 10, -1, -1], "feature": [10, 6, 9, -2, -2, 4, -2, -2, 8, -2, -2], "threshold": [-0.20184537023305893, 0.9809525012969971, -1.6572551131248474, -2.0, -2.0, -0.3275661775842309, -2.0, -2.0, 0.4796871691942215, -2.0, -2.0], "value": [4.758394679362152e-05, 0.008683597321837336, 0.011665633580756505, -1.0146024321843223, 1.0123166000702049, -0.0110723928935022, 1.0123166000702055, -1.0146024321843223, -0.012495197383627001, -1.0146024321843221, 1.0123166000702057]}, {"children_left": [1, 2, 3, -1, -1, 6, -1, -1, 9, -1, -1], "children_right": [8, 5, 4, -1, -1, 7, -1, -1, 10, -1, -1], "feature": [10, 6, 9, -2, -2, 8, -2, -2, 8, -2, -2], "threshold": [-0.20184537023305893, 0.9809525012969971, -1.6572551131248474, -2.0, -2.0, 0.4443080723285675, -2.0, -2.0, 0.4796871691942215, -2.0, -2.0], "value": [4.396704557427349e-05, 0.008015675287724426, 0.01076832538114746, -1.0134640060768982, 1.0113584575347854, -0.010220631581203137, -1.0134640060768985, 1.0113584575347845, -0.011533990163262849, -1.013464006076898, 1.0113584575347845]}, {"children_left": [1, 2, 3, -1, -1, 6, -1, -1, 9, -1, -1], "children_right": [8, 5, 4, -1, -1, 7, -1, -1, 10, -1, -1], "feature": [10, 6, 9, -2, -2, 3, -2, -2, 8, -2, -2], "threshold": [-0.20184537023305893, 0.9809525012969971, -1.6572551131248474, -2.0, -2.0, 0.8984751254320145, -2.0, -2.0, 0.4796871691942215, -2.0, -2.0], "value": [4.06220023437918e-05, 0.007399149458705862, 0.009940066747062068, -1.0124154639421505, 1.0104756545118012, -0.009434427576654003, -1.0124154639421505, 1.0104756545118012, -0.010646763112848748, -1.01241546394215, 1.0104756545118012]}, {"children_left": [1, 2, 3, -1, -1, 6, -1, -1, 9, -1, -1], "children_right": [8, 5, 4, -1, -1, 7, -1, -1, 10, -1, -1], "feature": [10, 6, 9, -2, -2, 2, -2, -2, 8, -2, -2], "threshold": [-0.20184537023305893, 0.9809525012969971, -1.6572551131248474, -2.0, -2.0, 1.905693769454956, -2.0, -2.0, 0.4796871691942215, -2.0, -2.0], "value": [3.752885356603089e-05, 0.006830061759348668, 0.009175539763525906, -1.011449539955465, 1.0096621471397547, -0.008708730018325525, -1.0114495399554653, 1.0096621471397544, -0.009827816557213513, -1.0114495399554648, 1.0096621471397544]}, {"children_left": [1, 2, 3, -1, -1, 6, -1, -1, 9, -1, -1], "children_right": [8, 5, 4, -1, -1, 7, -1, -1, 10, -1, -1], "feature": [10, 6, 9, -2, -2, 2, -2, -2, 8, -2, -2], "threshold": [-0.20184537023305893, 0.9809525012969971, -1.6572551131248474, -2.0, -2.0, 1.905693769454956, -2.0, -2.0, 0.4796871691942215, -2.0, -2.0], "value": [3.4669028031578106e-05, 0.006304759405163296, 0.008469836743433665, -1.0105595808730106, 1.008912394273517, -0.008038877960877934, -1.0105595808730106, 1.0089123942735174, -0.00907189080542163, -1.0105595808730101, 1.0089123942735174]}, {"children_left": [1, 2, 3, -1, -1, 6, -1, -1, 9, -1, -1], "children_right": [8, 5, 4, -1, -1, 7, -1, -1, 10, -1, -1], "feature": [10, 6, 9, -2, -2, 4, -2, -2, 8, -2, -2], "threshold": [-0.20184537023305893, 0.9809525012969971, -1.6572551131248474, -2.0, -2.0, -0.3275661775842309, -2.0, -2.0, 0.4796871691942215, -2.0, -2.0], "value": [3.202526172846616e-05, 0.005819871283377574, 0.007818428481942748, -1.0097394906435617, 1.0082213130224984, -0.007420570157116704, 1.0082213130224982, -1.0097394906435615, -0.008374132055428574, -1.009739490643562, 1.0082213130224982]}, {"children_left": [1, 2, 3, -1, -1, 6, -1, -1, 9, -1, -1], "children_right": [8, 5, 4, -1, -1, 7, -1, -1, 10, -1, -1], "feature": [10, 6, 9, -2, -2, 12, -2, -2, 8, -2, -2], "threshold": [-0.20184537023305893, 0.9809525012969971, -1.6572551131248474, -2.0, -2.0, -0.8973852396011353, -2.0, -2.0, 0.4796871691942215, -2.0, -2.0], "value": [2.9581515833029157e-05, 0.00537228617196906, 0.007217134982802831, -1.0089836805730648, 1.0075842386071237, -0.006849837199804688, 1.0075842386071234, -1.0089836805730648, -0.0077300609609359736, -1.008983680573064, 1.0075842386071234]}, {"children_left": [1, 2, 3, -1, -1, 6, -1, -1, 9, -1, -1], "children_right": [8, 5, 4, -1, -1, 7, -1, -1, 10, -1, -1], "feature": [10, 6, 9, -2, -2, 12, -2, -2, 8, -2, -2], "threshold": [-0.20184537023305893, 0.9809525012969971, -1.6572551131248474, -2.0, -2.0, -0.8973852396011353, -2.0, -2.0, 0.4796871691942215, -2.0, -2.0], "value": [2.7322898127856185e-05, 0.004959132652205379, 0.0066620984617825315, -1.0082870244085704, 1.0069968880594884, -0.006323015836243264, 1.0069968880594884, -1.0082870244085707, -0.007135543649460933, -1.0082870244085698, 1.0069968880594884]}, {"children_left": [1, 2, 3, -1, -1, 6, -1, -1, 9, -1, -1], "children_right": [8, 5, 4, -1, -1, 7, -1, -1, 10, -1, -1], "feature": [10, 6, 9, -2, -2, 11, -2, -2, 8, -2, -2], "threshold": [-0.20184537023305893, 0.9809525012969971, -1.6572551131248474, -2.0, -2.0, 1.4365711510181427, -2.0, -2.0, 0.4796871691942215, -2.0, -2.0], "value": [2.5235588040638113e-05, 0.004577760581601987, 0.006149758448079008, -1.007644817790735, 1.0064553273538417, -0.005836725283808273, -1.007644817790735, 1.0064553273538421, -0.006586764997846084, -1.0076448177907351, 1.0064553273538421]}, {"children_left": [1, 2, 3, -1, -1, 6, -1, -1, 9, -1, -1], "children_right": [8, 5, 4, -1, -1, 7, -1, -1, 10, -1, -1], "feature": [10, 6, 9, -2, -2, 0, -2, -2, 8, -2, -2], "threshold": [-0.20184537023305893, 0.9809525012969971, -1.6572551131248474, -2.0, -2.0, -0.1076493114233017, -2.0, -2.0, 0.4796871691942215, -2.0, -2.0], "value": [2.3306765407884405e-05, 0.004225724004886184, 0.005676828818994683, -1.0070527415945603, 1.0059559416030404, -0.005387845388582626, 1.0059559416030406, -1.0070527415945603, -0.006080203987167748, -1.0070527415945607, 1.0059559416030408]}, {"children_left": [1, 2, 3, -1, -1, 6, -1, -1, 9, -1, -1], "children_right": [8, 5, 4, -1, -1, 7, -1, -1, 10, -1, -1], "feature": [10, 6, 9, -2, -2, 2, -2, -2, 8, -2, -2], "threshold": [-0.20184537023305893, 0.9809525012969971, -1.6572551131248474, -2.0, -2.0, 1.905693769454956, -2.0, -2.0, 0.4796871691942215, -2.0, -2.0], "value": [2.1524542997818905e-05, 0.003900765390344464, 0.005240276616357297, -1.0065068287383463, 1.0054954080016538, -0.00497349648199056, -1.0065068287383465, 1.0054954080016543, -0.0056126109733865845, -1.0065068287383463, 1.0054954080016543]}, {"children_left": [1, 2, 3, -1, -1, 6, -1, -1, 9, -1, -1], "children_right": [8, 5, 4, -1, -1, 7, -1, -1, 10, -1, -1], "feature": [10, 6, 9, -2, -2, 5, -2, -2, 8, -2, -2], "threshold": [-0.20184537023305893, 0.9809525012969971, -1.6572551131248474, -2.0, -2.0, -0.4700406529009342, -2.0, -2.0, 0.4796871691942215, -2.0, -2.0], "value": [1.987790277223605e-05, 0.0036008010879059276, 0.00483730250525337, -1.0060034340925954, 1.005070671233714, -0.004591020802020876, 1.0050706712337143, -1.0060034340925954, -0.005180986723255278, -1.0060034340925956, 1.0050706712337143]}, {"children_left": [1, 2, 3, -1, -1, 6, -1, -1, 9, -1, -1], "children_right": [8, 5, 4, -1, -1, 7, -1, -1, 10, -1, -1], "feature": [10, 6, 9, -2, -2, 5, -2, -2, 8, -2, -2], "threshold": [-0.20184537023305893, 0.9809525012969971, -1.6572551131248474, -2.0, -2.0, -0.4700406529009342, -2.0, -2.0, 0.4796871691942215, -2.0, -2.0], "value": [1.835663582576888e-05, 0.0033239079135517426, 0.00446532274674097, -1.0055392071651688, 1.004678921096326, -0.004237965356326888, 1.0046789210963258, -1.0055392071651688, -0.004782563077061945, -1.0055392071651688, 1.0046789210963258]}, {"children_left": [1, 2, 3, -1, -1, 6, -1, -1, 9, -1, -1], "children_right": [8, 5, 4, -1, -1, 7, -1, -1, 10, -1, -1], "feature": [10, 6, 9, -2, -2, 0, -2, -2, 8, -2, -2], "threshold": [-0.20184537023305893, 0.9809525012969971, -1.6572551131248474, -2.0, -2.0, -0.1076493114233017, -2.0, -2.0, 0.4796871691942215, -2.0, -2.0], "value": [1.6951285909800983e-05, 0.003068310772201537, 0.00412195256639027, -1.0051110672774461, 1.0043175721186117, -0.003912066114298813, 1.0043175721186115, -1.0051110672774461, -0.004414785110847245, -1.005111067277446, 1.0043175721186115]}, {"children_left": [1, 2, 3, -1, -1, 6, -1, -1, 9, -1, -1], "children_right": [8, 5, 4, -1, -1, 7, -1, -1, 10, -1, -1], "feature": [10, 6, 9, -2, -2, 8, -2, -2, 8, -2, -2], "threshold": [-0.20184537023305893, 0.9809525012969971, -1.6572551131248474, -2.0, -2.0, 0.4443080723285675, -2.0, -2.0, 0.4796871691942215, -2.0, -2.0], "value": [1.5653096425194744e-05, 0.002832371238173538, 0.003804990809852524, -1.0047161809795337, 1.0039842449804894, -0.003611233424199743, -1.004716180979534, 1.0039842449804894, -0.004075294680875978, -1.0047161809795344, 1.0039842449804894]}, {"children_left": [1, 2, 3, -1, -1, 6, -1, -1, 9, -1, -1], "children_right": [8, 5, 4, -1, -1, 7, -1, -1, 10, -1, -1], "feature": [10, 6, 9, -2, -2, 3, -2, -2, 8, -2, -2], "threshold": [-0.20184537023305893, 0.9809525012969971, -1.6572551131248474, -2.0, -2.0, 0.8984751254320145, -2.0, -2.0, 0.4796871691942215, -2.0, -2.0], "value": [1.4453960751871396e-05, 0.002614577018696244, 0.0035124057852482264, -1.0043519414814432, 1.003676749557043, -0.0033335385597106438, -1.0043519414814432, 1.0036767495570427, -0.0037619152424530505, -1.0043519414814432, 1.0036767495570427]}, {"children_left": [1, 2, 3, -1, -1, 6, -1, -1, 9, -1, -1], "children_right": [8, 5, 4, -1, -1, 7, -1, -1, 10, -1, -1], "feature": [10, 6, 9, -2, -2, 2, -2, -2, 8, -2, -2], "threshold": [-0.20184537023305893, 0.9809525012969971, -1.6572551131248474, -2.0, -2.0, 1.905693769454956, -2.0, -2.0, 0.4796871691942215, -2.0, -2.0], "value": [1.334637577219814e-05, 0.0024135322318161356, 0.0032423222000613804, -1.004015949902302, 1.0033930694335722, -0.0030772013078086045, -1.004015949902302, 1.0033930694335718, -0.003472637843720188, -1.004015949902303, 1.0033930694335718]}, {"children_left": [1, 2, 3, -1, -1, 6, -1, -1, 9, -1, -1], "children_right": [8, 5, 4, -1, -1, 7, -1, -1, 10, -1, -1], "feature": [10, 6, 9, -2, -2, 8, -2, -2, 8, -2, -2], "threshold": [-0.20184537023305893, 0.9809525012969971, -1.6572551131248474, -2.0, -2.0, 0.4443080723285675, -2.0, -2.0, 0.4796871691942215, -2.0, -2.0], "value": [1.2323398438460799e-05, 0.0022279484354398955, 0.0029930091074856897, -1.0037059981615646, 1.0031313477527246, -0.0028405785168634963, -1.0037059981615644, 1.0031313477527246, -0.0032056082029207683, -1.0037059981615652, 1.0031313477527246]}, {"children_left": [1, 2, 3, -1, -1, 6, -1, -1, 9, -1, -1], "children_right": [8, 5, 4, -1, -1, 7, -1, -1, 10, -1, -1], "feature": [10, 6, 9, -2, -2, 8, -2, -2, 8, -2, -2], "threshold": [-0.20184537023305893, 0.9809525012969971, -1.6572551131248474, -2.0, -2.0, 0.4443080723285675, -2.0, -2.0, 0.4796871691942215, -2.0, -2.0], "value": [1.1378605231264154e-05, 0.002056636349211322, 0.002762868783844725, -1.0034200533553765, 1.0028898742699814, -0.0026221535302349804, -1.0034200533553768, 1.0028898742699819, -0.00295911478483501, -1.0034200533553765, 1.0028898742699819]}, {"children_left": [1, 2, 3, -1, -1, 6, -1, -1, 9, -1, -1], "children_right": [8, 5, 4, -1, -1, 7, -1, -1, 10, -1, -1], "feature": [10, 6, 9, -2, -2, 1, -2, -2, 8, -2, -2], "threshold": [-0.20184537023305893, 0.9809525012969971, -1.6572551131248474, -2.0, -2.0, -0.837949126958847, -2.0, -2.0, 0.4796871691942215, -2.0, -2.0], "value": [1.0506054354985372e-05, 0.0018984982154884962, 0.0025504264648500597, -1.003156243478027, 1.0026670735057832, -0.0024205264365318676, 1.0026670735057832, -1.0031562434780272, -0.002731577798719872, -1.0031562434780266, 1.0026670735057832]}, {"children_left": [1, 2, 3, -1, -1, 6, -1, -1, 9, -1, -1], "children_right": [8, 5, 4, -1, -1, 7, -1, -1, 10, -1, -1], "feature": [10, 6, 9, -2, -2, 5, -2, -2, 8, -2, -2], "threshold": [-0.20184537023305893, 0.9809525012969971, -1.6572551131248474, -2.0, -2.0, -0.4700406529009342, -2.0, -2.0, 0.4796871691942215, -2.0, -2.0], "value": [9.700250517639474e-06, 0.0017525207498884654, 0.0023543208741136227, -1.0029128443631974, 1.0024614938953567, -0.0022344050731031993, 1.0024614938953569, -1.0029128443631972, -0.0025215390461876047, -1.0029128443631972, 1.0024614938953569]}, {"children_left": [1, 2, 3, -1, -1, 6, -1, -1, 9, -1, -1], "children_right": [8, 5, 4, -1, -1, 7, -1, -1, 10, -1, -1], "feature": [10, 6, 9, -2, -2, 12, -2, -2, 8, -2, -2], "threshold": [-0.20184537023305893, 0.9809525012969971, -1.6572551131248474, -2.0, -2.0, -0.8973852396011353, -2.0, -2.0, 0.4796871691942215, -2.0, -2.0], "value": [8.956112145365304e-06, 0.0016177686357345187, 0.002173295482532835, -1.002688267732712, 1.0022717978459719, -0.002062596724304327, 1.0022717978459719, -1.002688267732712, -0.002327652553067456, -1.0026882677327118, 1.0022717978459719]}, {"children_left": [1, 2, 3, -1, -1, 6, -1, -1, 9, -1, -1], "children_right": [8, 5, 4, -1, -1, 7, -1, -1, 10, -1, -1], "feature": [10, 6, 9, -2, -2, 1, -2, -2, 8, -2, -2], "threshold": [-0.20184537023305893, 0.9809525012969971, -1.6572551131248474, -2.0, -2.0, -0.837949126958847, -2.0, -2.0, 0.4796871691942215, -2.0, -2.0], "value": [8.268940885746276e-06, 0.0014933785203027747, 0.002006190441957235, -1.0024810502519634, 1.0020967526208242, -0.0019040004606580205, 1.002096752620824, -1.0024810502519632, -0.00214867592445803, -1.0024810502519634, 1.002096752620824]}, {"children_left": [1, 2, 3, -1, -1, 6, -1, -1, 9, -1, -1], "children_right": [8, 5, 4, -1, -1, 7, -1, -1, 10, -1, -1], "feature": [10, 6, 9, -2, -2, 8, -2, -2, 8, -2, -2], "threshold": [-0.20184537023305893, 0.9809525012969971, -1.6572551131248474, -2.0, -2.0, 0.4443080723285675, -2.0, -2.0, 0.4796871691942215, -2.0, -2.0], "value": [7.63439325907253e-06, 0.0013785534740446482, 0.0018519351409559783, -1.0022898435013423, 1.0019352219768272, -0.001757600069242913, -1.002289843501342, 1.0019352219768272, -0.001983462366929503, -1.0022898435013412, 1.0019352219768272]}, {"children_left": [1, 2, 3, -1, -1, 6, -1, -1, 9, -1, -1], "children_right": [8, 5, 4, -1, -1, 7, -1, -1, 10, -1, -1], "feature": [10, 6, 9, -2, -2, 3, -2, -2, 8, -2, -2], "threshold": [-0.20184537023305893, 0.9809525012969971, -1.6572551131248474, -2.0, -2.0, 0.8984751254320145, -2.0, -2.0, 0.4796871691942215, -2.0, -2.0], "value": [7.048454322074046e-06, 0.0012725578769833303, 0.0017095413345686581, -1.002113404781997, 1.0017861584902727, -0.001622457529519465, -1.0021134047819968, 1.001786158490273, -0.0018309533262097517, -1.0021134047819975, 1.001786158490273]}, {"children_left": [1, 2, 3, -1, -1, 6, -1, -1, 9, -1, -1], "children_right": [8, 5, 4, -1, -1, 7, -1, -1, 10, -1, -1], "feature": [10, 6, 9, -2, -2, 12, -2, -2, 8, -2, -2], "threshold": [-0.20184537023305893, 0.9809525012969971, -1.6572551131248474, -2.0, -2.0, -0.8973852396011353, -2.0, -2.0, 0.4796871691942215, -2.0, -2.0], "value": [6.50741321461811e-06, 0.0011747126992656938, 0.0015780968036641781, -1.0019505886822364, 1.0016485965103525, -0.0014977069923742732, 1.0016485965103528, -1.0019505886822364, -0.001690171692716706, -1.001950588682237, 1.0016485965103528]}, {"children_left": [1, 2, 3, -1, -1, 6, -1, -1, 9, -1, -1], "children_right": [8, 5, 4, -1, -1, 7, -1, -1, 10, -1, -1], "feature": [10, 6, 9, -2, -2, 1, -2, -2, 8, -2, -2], "threshold": [-0.20184537023305893, 0.9809525012969971, -1.6572551131248474, -2.0, -2.0, -0.837949126958847, -2.0, -2.0, 0.4796871691942215, -2.0, -2.0], "value": [6.007840465954393e-06, 0.0010843911454162182, 0.0014567595029812619, -1.0018003393380053, 1.00152164568768, -0.0013825492234521967, 1.00152164568768, -1.0018003393380053, -0.0015602155310094272, -1.0018003393380053, 1.00152164568768]}, {"children_left": [1, 2, 3, -1, -1, 6, -1, -1, 9, -1, -1], "children_right": [8, 5, 4, -1, -1, 7, -1, -1, 10, -1, -1], "feature": [10, 6, 9, -2, -2, 2, -2, -2, 8, -2, -2], "threshold": [-0.20184537023305893, 0.9809525012969971, -1.6572551131248474, -2.0, -2.0, 1.905693769454956, -2.0, -2.0, 0.4796871691942215, -2.0, -2.0], "value": [5.546566943306743e-06, 0.0010010146342029538, 0.0013447521601015215, -1.001661683327211, 1.0014044850270536, -0.0012762464748750514, -1.0016616833272112, 1.001404485027053, -0.001440252292648084, -1.001661683327211, 1.001404485027053]}, {"children_left": [1, 2, 3, -1, -1, 6, -1, -1, 9, -1, -1], "children_right": [8, 5, 4, -1, -1, 7, -1, -1, 10, -1, -1], "feature": [10, 6, 9, -2, -2, 1, -2, -2, 8, -2, -2], "threshold": [-0.20184537023305893, 0.9809525012969971, -1.6572551131248474, -2.0, -2.0, -0.837949126958847, -2.0, -2.0, 0.4796871691942215, -2.0, -2.0], "value": [5.120664331964026e-06, 0.0009240490882044203, 0.0012413572905351326, -1.0015337231433403, 1.0012963574213676, -0.0011781177522365506, 1.001296357421368, -1.0015337231433403, -0.0013295134751018407, -1.0015337231433403, 1.001296357421368]}, {"children_left": [1, 2, 3, -1, -1, 6, -1, -1, 9, -1, -1], "children_right": [8, 5, 4, -1, -1, 7, -1, -1, 10, -1, -1], "feature": [10, 6, 9, -2, -2, 8, -2, -2, 8, -2, -2], "threshold": [-0.20184537023305893, 0.9809525012969971, -1.6572551131248474, -2.0, -2.0, 0.4443080723285675, -2.0, -2.0, 0.4796871691942215, -2.0, -2.0], "value": [4.727427042158211e-06, 0.0008530015091744957, 0.0011459125967985592, -1.0014156311988858, 1.0011965646259688, -0.0010875344463349241, -1.0014156311988858, 1.0011965646259693, -0.0012272896922452864, -1.0014156311988864, 1.0011965646259693]}, {"children_left": [1, 2, 3, -1, -1, 6, -1, -1, 9, -1, -1], "children_right": [8, 5, 4, -1, -1, 7, -1, -1, 10, -1, -1], "feature": [10, 6, 9, -2, -2, 11, -2, -2, 8, -2, -2], "threshold": [-0.20184537023305893, 0.9809525012969971, -1.6572551131248474, -2.0, -2.0, 1.4365711510181427, -2.0, -2.0, 0.4796871691942215, -2.0, -2.0], "value": [4.364355444086213e-06, 0.0007874168171538165, 0.0010578067218524664, -1.0013066443136502, 1.0011044626357508, -0.0010039163014747372, -1.0013066443136502, 1.001104462635751, -0.001132926124658142, -1.0013066443136502, 1.001104462635751]}, {"children_left": [1, 2, 3, -1, -1, 6, -1, -1, 9, -1, -1], "children_right": [8, 5, 4, -1, -1, 7, -1, -1, 10, -1, -1], "feature": [10, 6, 9, -2, -2, 11, -2, -2, 8, -2, -2], "threshold": [-0.20184537023305893, 0.9809525012969971, -1.6572551131248474, -2.0, -2.0, 1.4365711510181427, -2.0, -2.0, 0.4796871691942215, -2.0, -2.0], "value": [4.029140338425234e-06, 0.0007268749329833329, 0.0009764753295625443, -1.0012060586470806, 1.0010194574328277, -0.0009267276943539439, -1.0012060586470806, 1.0010194574328277, -0.001045818320407751, -1.00120605864708, 1.0010194574328277]}, {"children_left": [1, 2, 3, -1, -1, 6, -1, -1, 9, -1, -1], "children_right": [8, 5, 4, -1, -1, 7, -1, -1, 10, -1, -1], "feature": [10, 6, 9, -2, -2, 2, -2, -2, 8, -2, -2], "threshold": [-0.20184537023305893, 0.9809525012969971, -1.6572551131248474, -2.0, -2.0, 1.905693769454956, -2.0, -2.0, 0.4796871691942215, -2.0, -2.0], "value": [3.719648575299334e-06, 0.0006709880854496772, 0.0009013974869614763, -1.0011132250374646, 1.000941001072809, -0.0008554741995659924, -1.001113225037465, 1.0009410010728095, -0.0009654083192660599, -1.0011132250374652, 1.0009410010728095]}, {"children_left": [1, 2, 3, -1, -1, 6, -1, -1, 9, -1, -1], "children_right": [8, 5, 4, -1, -1, 7, -1, -1, 10, -1, -1], "feature": [10, 6, 9, -2, -2, 8, -2, -2, 8, -2, -2], "threshold": [-0.20184537023305893, 0.9809525012969971, -1.6572551131248474, -2.0, -2.0, 0.4443080723285675, -2.0, -2.0, 0.4796871691942215, -2.0, -2.0], "value": [3.4339097402351614e-06, 0.0006193983257436019, 0.0008320923250412481, -1.001027544714135, 1.0008685880824462, -0.0007896994196033059, -1.0010275447141352, 1.0008685880824462, -0.000891181075407512, -1.001027544714134, 1.0008685880824462]}, {"children_left": [1, 2, 3, -1, -1, 6, -1, -1, 9, -1, -1], "children_right": [8, 5, 4, -1, -1, 7, -1, -1, 10, -1, -1], "feature": [10, 6, 9, -2, -2, 0, -2, -2, 8, -2, -2], "threshold": [-0.20184537023305893, 0.9809525012969971, -1.6572551131248474, -2.0, -2.0, -0.1076493114233017, -2.0, -2.0, 0.4796871691942215, -2.0, -2.0], "value": [3.1701038308385826e-06, 0.0005717752332514643, 0.0007681159566041711, -1.000948465351812, 1.0008017521437917, -0.0007289820589602196, 1.0008017521437922, -1.000948465351812, -0.0008226611555657858, -1.000948465351812, 1.0008017521437922]}, {"children_left": [1, 2, 3, -1, -1, 6, -1, -1, 9, -1, -1], "children_right": [8, 5, 4, -1, -1, 7, -1, -1, 10, -1, -1], "feature": [10, 6, 9, -2, -2, 8, -2, -2, 8, -2, -2], "threshold": [-0.20184537023305893, 0.9809525012969971, -1.6572551131248474, -2.0, -2.0, 0.4443080723285675, -2.0, -2.0, 0.4796871691942215, -2.0, -2.0], "value": [2.926549852905318e-06, 0.0005278137979343657, 0.0007090586313602158, -1.0008754774389172, 1.0007400630404464, -0.0006729332235118954, -1.0008754774389175, 1.0007400630404466, -0.0007594096914082628, -1.0008754774389166, 1.0007400630404466]}, {"children_left": [1, 2, 3, -1, -1, 6, -1, -1, 9, -1, -1], "children_right": [8, 5, 4, -1, -1, 7, -1, -1, 10, -1, -1], "feature": [10, 6, 9, -2, -2, 5, -2, -2, 8, -2, -2], "threshold": [-0.20184537023305893, 0.9809525012969971, -1.6572551131248474, -2.0, -2.0, -0.4700406529009342, -2.0, -2.0, 0.4796871691942215, -2.0, -2.0], "value": [2.7016952694778337e-06, 0.0004872324656885153, 0.0006545421099888632, -1.0008081109341438, 1.0006831238443008, -0.0006211939278012899, 1.000683123844301, -1.0008081109341436, -0.0007010215665296019, -1.0008081109341438, 1.000683123844301]}, {"children_left": [1, 2, 3, -1, -1, 6, -1, -1, 9, -1, -1], "children_right": [8, 5, 4, -1, -1, 7, -1, -1, 10, -1, -1], "feature": [10, 6, 9, -2, -2, 1, -2, -2, 8, -2, -2], "threshold": [-0.20184537023305893, 0.9809525012969971, -1.6572551131248474, -2.0, -2.0, -0.837949126958847, -2.0, -2.0, 0.4796871691942215, -2.0, -2.0], "value": [2.4941062408348854e-06, 0.0004497713341309452, 0.000604217240295421, -1.0007459321877665, 1.0006305683258836, -0.0005734327942087089, 1.0006305683258838, -1.0007459321877663, -0.0006471228199805154, -1.0007459321877663, 1.0006305683258838]}, {"children_left": [1, 2, 3, -1, -1, 6, -1, -1, 9, -1, -1], "children_right": [8, 5, 4, -1, -1, 7, -1, -1, 10, -1, -1], "feature": [10, 6, 9, -2, -2, 4, -2, -2, 8, -2, -2], "threshold": [-0.20184537023305893, 0.9809525012969971, -1.6572551131248474, -2.0, -2.0, -0.3275661775842309, -2.0, -2.0, 0.4796871691942215, -2.0, -2.0], "value": [2.3024585975676197e-06, 0.00041519048722362496, 0.0005577617198938531, -1.0006885411061994, 1.000582058566252, -0.0005293439292166361, 1.000582058566252, -1.0006885411061992, -0.0005973682496450394, -1.0006885411061996, 1.000582058566252]}, {"children_left": [1, 2, 3, -1, -1, 6, -1, -1, 9, -1, -1], "children_right": [8, 5, 4, -1, -1, 7, -1, -1, 10, -1, -1], "feature": [10, 6, 9, -2, -2, 11, -2, -2, 8, -2, -2], "threshold": [-0.20184537023305893, 0.9809525012969971, -1.6572551131248474, -2.0, -2.0, 1.4365711510181427, -2.0, -2.0, 0.4796871691942215, -2.0, -2.0], "value": [2.125529493019942e-06, 0.0003832684580433538, 0.0005148780310498315, -1.0006355685401225, 1.0005372827579913, -0.0004886449631245618, -1.0006355685401225, 1.0005372827579915, -0.0005514392000681797, -1.0006355685401231, 1.0005372827579915]}, {"children_left": [1, 2, 3, -1, -1, 6, -1, -1, 9, -1, -1], "children_right": [8, 5, 4, -1, -1, 7, -1, -1, 10, -1, -1], "feature": [10, 6, 9, -2, -2, 1, -2, -2, 8, -2, -2], "threshold": [-0.20184537023305893, 0.9809525012969971, -1.6572551131248474, -2.0, -2.0, -0.837949126958847, -2.0, -2.0, 0.4796871691942215, -2.0, -2.0], "value": [1.9621896849952005e-06, 0.00035380080982937205, 0.0004752915344258135, -1.0005866738781608, 1.0004959531788515, -0.00045107524062205245, 1.0004959531788518, -1.000586673878161, -0.000509041520524695, -1.0005866738781608, 1.0004959531788518]}, {"children_left": [1, 2, 3, -1, -1, 6, -1, -1, 9, -1, -1], "children_right": [8, 5, 4, -1, -1, 7, -1, -1, 10, -1, -1], "feature": [10, 6, 9, -2, -2, 0, -2, -2, 8, -2, -2], "threshold": [-0.20184537023305893, 0.9809525012969971, -1.6572551131248474, -2.0, -2.0, -0.1076493114233017, -2.0, -2.0, 0.4796871691942215, -2.0, -2.0], "value": [1.811396400212532e-06, 0.0003265988262017521, 0.00043874870949260023, -1.0005415428296094, 1.0004578043220078, -0.00041639415060011647, 1.0004578043220074, -1.0005415428296096, -0.0004699036802163089, -1.0005415428296096, 1.0004578043220074]}, {"children_left": [1, 2, 3, -1, -1, 6, -1, -1, 9, -1, -1], "children_right": [8, 5, 4, -1, -1, 7, -1, -1, 10, -1, -1], "feature": [10, 6, 9, -2, -2, 2, -2, -2, 8, -2, -2], "threshold": [-0.20184537023305893, 0.9809525012969971, -1.6572551131248474, -2.0, -2.0, 1.905693769454956, -2.0, -2.0, 0.4796871691942215, -2.0, -2.0], "value": [1.6721867383351993e-06, 0.000301488302145861, 0.00040501553031542265, -1.000499885381064, 1.0004225911757552, -0.00038437958447748465, -1.0004998853810638, 1.0004225911757552, -0.0004337750284964043, -1.0004998853810643, 1.0004225911757552]}, {"children_left": [1, 2, 3, -1, -1, 6, -1, -1, 9, -1, -1], "children_right": [8, 5, 4, -1, -1, 7, -1, -1, 10, -1, -1], "feature": [10, 6, 9, -2, -2, 4, -2, -2, 8, -2, -2], "threshold": [-0.20184537023305893, 0.9809525012969971, -1.6572551131248474, -2.0, -2.0, -0.3275661775842309, -2.0, -2.0, 0.4796871691942215, -2.0, -2.0], "value": [1.5436715753637365e-06, 0.00027830842800584415, 0.0003738759662928547, -1.0004614339130857, 1.0003900876340241, -0.000354826513145601, 1.0003900876340244, -1.0004614339130855, -0.00040042418895462, -1.0004614339130864, 1.0003900876340244]}, {"children_left": [1, 2, 3, -1, -1, 6, -1, -1, 9, -1, -1], "children_right": [8, 5, 4, -1, -1, 7, -1, -1, 10, -1, -1], "feature": [10, 6, 9, -2, -2, 5, -2, -2, 8, -2, -2], "threshold": [-0.20184537023305893, 0.9809525012969971, -1.6572551131248474, -2.0, -2.0, -0.4700406529009342, -2.0, -2.0, 0.4796871691942215, -2.0, -2.0], "value": [1.4250299292190948e-06, 0.00025691075932814887, 0.00034513059823039764, -1.0004259414641494, 1.00036008503418, -0.0003275456733992479, 1.0003600850341796, -1.000425941464149, -0.0003696375770549412, -1.0004259414641494, 1.0003600850341796]}, {"children_left": [1, 2, 3, -1, -1, 6, -1, -1, 9, -1, -1], "children_right": [8, 5, 4, -1, -1, 7, -1, -1, 10, -1, -1], "feature": [10, 6, 9, -2, -2, 5, -2, -2, 8, -2, -2], "threshold": [-0.20184537023305893, 0.9809525012969971, -1.6572551131248474, -2.0, -2.0, -0.4700406529009342, -2.0, -2.0, 0.4796871691942215, -2.0, -2.0], "value": [1.315503752895662e-06, 0.00023715826594751196, 0.00031859534087150026, -1.0003931801301942, 1.0003323908058215, -0.0003023623554239091, 1.0003323908058206, -1.0003931801301944, -0.00034121803181547594, -1.0003931801301942, 1.0003323908058206]}, {"children_left": [1, 2, 3, -1, -1, 6, -1, -1, 9, -1, -1], "children_right": [8, 5, 4, -1, -1, 7, -1, -1, 10, -1, -1], "feature": [10, 6, 9, -2, -2, 5, -2, -2, 8, -2, -2], "threshold": [-0.20184537023305893, 0.9809525012969971, -1.6572551131248474, -2.0, -2.0, -0.4700406529009342, -2.0, -2.0, 0.4796871691942215, -2.0, -2.0], "value": [1.2143931231908906e-06, 0.00021892445421707715, 0.0002941002636929616, -1.0003629395890263, 1.0003068272274622, -0.00027911528356065843, 1.0003068272274622, -1.0003629395890266, -0.00031498355275126334, -1.0003629395890263, 1.0003068272274622]}, {"children_left": [1, 2, 3, -1, -1, 6, -1, -1, 9, -1, -1], "children_right": [8, 5, 4, -1, -1, 7, -1, -1, 10, -1, -1], "feature": [10, 6, 9, -2, -2, 12, -2, -2, 8, -2, -2], "threshold": [-0.20184537023305893, 0.9809525012969971, -1.6572551131248474, -2.0, -2.0, -0.8973852396011353, -2.0, -2.0, 0.4796871691942215, -2.0, -2.0], "value": [1.1210517952616539e-06, 0.00020209255675388983, 0.0002714885024026134, -1.0003350257397114, 1.0002832302766227, -0.00025765558316890366, 1.0002832302766227, -1.0003350257397114, -0.0002907661339779839, -1.0003350257397114, 1.0002832302766227]}, {"children_left": [1, 2, 3, -1, -1, 6, -1, -1, 9, -1, -1], "children_right": [8, 5, 4, -1, -1, 7, -1, -1, 10, -1, -1], "feature": [10, 6, 9, -2, -2, 5, -2, -2, 8, -2, -2], "threshold": [-0.20184537023305893, 0.9809525012969971, -1.6572551131248474, -2.0, -2.0, -0.4700406529009342, -2.0, -2.0, 0.4796871691942215, -2.0, -2.0], "value": [1.0348830955354699e-06, 0.00018655478450469492, 0.0002506152541598178, -1.000309259447887, 1.0002614485739936, -0.00023784582696049437, 1.0002614485739938, -1.000309259447887, -0.00026841068799872, -1.0003092594478873, 1.0002614485739938]}, {"children_left": [1, 2, 3, -1, -1, 6, -1, -1, 9, -1, -1], "children_right": [8, 5, 4, -1, -1, 7, -1, -1, 10, -1, -1], "feature": [10, 6, 9, -2, -2, 0, -2, -2, 8, -2, -2], "threshold": [-0.20184537023305893, 0.9809525012969971, -1.6572551131248474, -2.0, -2.0, -0.1076493114233017, -2.0, -2.0, 0.4796871691942215, -2.0, -2.0], "value": [9.5533612740379e-07, 0.00017221163633682646, 0.00023134685007661062, -1.0002854753886548, 1.0002413424045997, -0.0002195591546892443, 1.0002413424046, -1.0002854753886548, -0.00024777405227199595, -1.0002854753886554, 1.0002413424046]}, {"children_left": [1, 2, 3, -1, -1, 6, -1, -1, 9, -1, -1], "children_right": [8, 5, 4, -1, -1, 7, -1, -1, 10, -1, -1], "feature": [10, 6, 9, -2, -2, 11, -2, -2, 8, -2, -2], "threshold": [-0.20184537023305893, 0.9809525012969971, -1.6572551131248474, -2.0, -2.0, 1.4365711510181427, -2.0, -2.0, 0.4796871691942215, -2.0, -2.0], "value": [8.819022661590998e-07, 0.00015897126172841283, 0.00021355989905360234, -1.0002635209793893, 1.000222782817216, -0.00020267846055096783, -1.0002635209793893, 1.0002227828172163, -0.00022872407219092392, -1.000263520979389, 1.0002227828172163]}, {"children_left": [1, 2, 3, -1, -1, 6, -1, -1, 9, -1, -1], "children_right": [8, 5, 4, -1, -1, 7, -1, -1, 10, -1, -1], "feature": [10, 6, 9, -2, -2, 3, -2, -2, 8, -2, -2], "threshold": [-0.20184537023305893, 0.9809525012969971, -1.6572551131248474, -2.0, -2.0, 0.8984751254320145, -2.0, -2.0, 0.4796871691942215, -2.0, -2.0], "value": [8.141119212727958e-07, 0.00014674887247269547, 0.00019714049746237162, -1.000243255395404, 1.0002056507949288, -0.00018709564308390863, -1.000243255395404, 1.0002056507949282, -0.00021113875459388871, -1.000243255395404, 1.0002056507949277]}, {"children_left": [1, 2, 3, -1, -1, 6, -1, -1, 9, -1, -1], "children_right": [8, 5, 4, -1, -1, 7, -1, -1, 10, -1, -1], "feature": [10, 6, 9, -2, -2, 12, -2, -2, 8, -2, -2], "threshold": [-0.20184537023305893, 0.9809525012969971, -1.6572551131248474, -2.0, -2.0, -0.8973852396011353, -2.0, -2.0, 0.4796871691942215, -2.0, -2.0], "value": [7.51531545766346e-07, 0.0001354661996257838, 0.00018198349960864063, -1.0002245486619876, 1.0001898364873467, -0.00017271091276064345, 1.000189836487347, -1.0002245486619878, -0.00019490548637997348, -1.0002245486619876, 1.000189836487347]}, {"children_left": [1, 2, 3, -1, -1, 6, -1, -1, 9, -1, -1], "children_right": [8, 5, 4, -1, -1, 7, -1, -1, 10, -1, -1], "feature": [10, 6, 9, -2, -2, 0, -2, -2, 8, -2, -2], "threshold": [-0.20184537023305893, 0.9809525012969971, -1.6572551131248474, -2.0, -2.0, -0.1076493114233017, -2.0, -2.0, 0.4796871691942215, -2.0, -2.0], "value": [6.937608739756515e-07, 0.00012505099221745826, 0.00016799184430051656, -1.0002072808168363, 1.0001752385031857, -0.000159432152832803, 1.0001752385031861, -1.0002072808168359, -0.00017992031322013028, -1.0002072808168363, 1.0001752385031861]}, {"children_left": [1, 2, 3, -1, -1, 6, -1, -1, 9, -1, -1], "children_right": [8, 5, 4, -1, -1, 7, -1, -1, 10, -1, -1], "feature": [10, 6, 9, -2, -2, 1, -2, -2, 8, -2, -2], "threshold": [-0.20184537023305893, 0.9809525012969971, -1.6572551131248474, -2.0, -2.0, -0.837949126958847, -2.0, -2.0, 0.4796871691942215, -2.0, -2.0], "value": [6.404303703656859e-07, 0.0001154365545124572, 0.0001550759332059126, -1.0001913411373797, 1.0001617632592876, -0.0001471743293316848, 1.0001617632592876, -1.0001913411373797, -0.00016608727374076732, -1.0001913411373795, 1.0001617632592876]}, {"children_left": [1, 2, 3, -1, -1, 6, -1, -1, 9, -1, -1], "children_right": [8, 5, 4, -1, -1, 7, -1, -1, 10, -1, -1], "feature": [10, 6, 9, -2, -2, 8, -2, -2, 8, -2, -2], "threshold": [-0.20184537023305893, 0.9809525012969971, -1.6572551131248474, -2.0, -2.0, 0.4443080723285675, -2.0, -2.0, 0.4796871691942215, -2.0, -2.0], "value": [5.911988733536524e-07, 0.00010656131885690927, 0.00014315305701541794, -1.0001766274279433, 1.0001493243764117, -0.00013585894644321036, -1.0001766274279433, 1.0001493243764117, -0.00015331778491228662, -1.000176627427943, 1.0001493243764117]}, {"children_left": [1, 2, 3, -1, -1, 6, -1, -1, 9, -1, -1], "children_right": [8, 5, 4, -1, -1, 7, -1, -1, 10, -1, -1], "feature": [10, 6, 9, -2, -2, 11, -2, -2, 8, -2, -2], "threshold": [-0.20184537023305893, 0.9809525012969971, -1.6572551131248474, -2.0, -2.0, 1.4365711510181427, -2.0, -2.0, 0.4796871691942215, -2.0, -2.0], "value": [5.457514193413425e-07, 9.83684513728425e-05, 0.00013214686573353524, -1.0001630453620758, 1.000137842125934, -0.00012541354376674693, -1.000163045362076, 1.0001378421259337, -0.00014153007470360084, -1.0001630453620765, 1.0001378421259337]}, {"children_left": [1, 2, 3, -1, -1, 6, -1, -1, 9, -1, -1], "children_right": [8, 5, 4, -1, -1, 7, -1, -1, 10, -1, -1], "feature": [10, 6, 9, -2, -2, 8, -2, -2, 8, -2, -2], "threshold": [-0.20184537023305893, 0.9809525012969971, -1.6572551131248474, -2.0, -2.0, 0.4443080723285675, -2.0, -2.0, 0.4796871691942215, -2.0, -2.0], "value": [5.037972332122235e-07, 9.080548797421417e-05, 0.00012198687970405389, -1.0001505078757529, 1.0001272429163715, -0.00011577123223597427, -1.000150507875753, 1.000127242916372, -0.0001306486583668146, -1.0001505078757529, 1.000127242916372]}, {"children_left": [1, 2, 3, -1, -1, 6, -1, -1, 9, -1, -1], "children_right": [8, 5, 4, -1, -1, 7, -1, -1, 10, -1, -1], "feature": [10, 6, 9, -2, -2, 3, -2, -2, 8, -2, -2], "threshold": [-0.20184537023305893, 0.9809525012969971, -1.6572551131248474, -2.0, -2.0, 0.8984751254320145, -2.0, -2.0, 0.4796871691942215, -2.0, -2.0], "value": [4.6506787263758884e-07, 8.3823998372393e-05, 0.00011260803823658969, -1.0001389346074974, 1.0001174588204147, -0.00010687026572791005, -1.0001389346074974, 1.0001174588204147, -0.00012060385499605492, -1.0001389346074965, 1.0001174588204147]}, {"children_left": [1, 2, 3, -1, -1, 6, -1, -1, 9, -1, -1], "children_right": [8, 5, 4, -1, -1, 7, -1, -1, 10, -1, -1], "feature": [10, 6, 9, -2, -2, 11, -2, -2, 8, -2, -2], "threshold": [-0.20184537023305893, 0.9809525012969971, -1.6572551131248474, -2.0, -2.0, 1.4365711510181427, -2.0, -2.0, 0.4796871691942215, -2.0, -2.0], "value": [4.293155144631113e-07, 7.737927591841009e-05, 0.00010395028294233127, -1.0001282513817673, 1.0001084271385814, -9.865364561506814e-05, -1.0001282513817673, 1.0001084271385814, -0.00011133134126269814, -1.0001282513817682, 1.0001084271385814]}, {"children_left": [1, 2, 3, -1, -1, 6, -1, -1, 9, -1, -1], "children_right": [8, 5, 4, -1, -1, 7, -1, -1, 10, -1, -1], "feature": [10, 6, 9, -2, -2, 3, -2, -2, 8, -2, -2], "threshold": [-0.20184537023305893, 0.9809525012969971, -1.6572551131248474, -2.0, -2.0, 0.8984751254320145, -2.0, -2.0, 0.4796871691942215, -2.0, -2.0], "value": [3.9631137233850225e-07, 7.1430051294918e-05, 9.595817310953875e-05, -1.000118389732258, 1.0001000899954224, -9.106875572694442e-05, -1.0001183897322579, 1.0001000899954229, -0.0001027717394675985, -1.000118389732258, 1.0001000899954229]}, {"children_left": [1, 2, 3, -1, -1, 6, -1, -1, 9, -1, -1], "children_right": [8, 5, 4, -1, -1, 7, -1, -1, 10, -1, -1], "feature": [10, 6, 9, -2, -2, 8, -2, -2, 8, -2, -2], "threshold": [-0.20184537023305893, 0.9809525012969971, -1.6572551131248474, -2.0, -2.0, 0.4443080723285675, -2.0, -2.0, 0.4796871691942215, -2.0, -2.0], "value": [3.658442355802352e-07, 6.593822822367495e-05, 8.858053065471755e-05, -1.0001092864620154, 1.0000923939712, -8.40670253819826e-05, -1.0001092864620151, 1.0000923939711999, -9.487023727093816e-05, -1.000109286462015, 1.0000923939711996]}, {"children_left": [1, 2, 3, -1, -1, 6, -1, -1, 9, -1, -1], "children_right": [8, 5, 4, -1, -1, 7, -1, -1, 10, -1, -1], "feature": [10, 6, 9, -2, -2, 2, -2, -2, 8, -2, -2], "threshold": [-0.20184537023305893, 0.9809525012969971, -1.6572551131248474, -2.0, -2.0, 1.905693769454956, -2.0, -2.0, 0.4796871691942215, -2.0, -2.0], "value": [3.377191199905564e-07, 6.0868639495427655e-05, 8.17701123749077e-05, -1.0001008832375073, 1.0000852897543868, -7.76036183311273e-05, -1.0001008832375073, 1.0000852897543864, -8.757623666338255e-05, -1.0001008832375076, 1.0000852897543864]}, {"children_left": [1, 2, 3, -1, -1, 6, -1, -1, 9, -1, -1], "children_right": [8, 5, 4, -1, -1, 7, -1, -1, 10, -1, -1], "feature": [10, 6, 9, -2, -2, 2, -2, -2, 8, -2, -2], "threshold": [-0.20184537023305893, 0.9809525012969971, -1.6572551131248474, -2.0, -2.0, 1.905693769454956, -2.0, -2.0, 0.4796871691942215, -2.0, -2.0], "value": [3.1175602211398046e-07, 5.6188821759397696e-05, 7.548330740159331e-05, -1.0000931262140265, 1.0000787318289723, -7.163714562014817e-05, -1.0000931262140265, 1.000078731828972, -8.084302992965527e-05, -1.000093126214026, 1.000078731828972]}, {"children_left": [1, 2, 3, -1, -1, 6, -1, -1, 9, -1, -1], "children_right": [8, 5, 4, -1, -1, 7, -1, -1, 10, -1, -1], "feature": [10, 6, 9, -2, -2, 2, -2, -2, 8, -2, -2], "threshold": [-0.20184537023305893, 0.9809525012969971, -1.6572551131248474, -2.0, -2.0, 1.905693769454956, -2.0, -2.0, 0.4796871691942215, -2.0, -2.0], "value": [2.87788768989321e-07, 5.186880762967167e-05, 6.967985791811217e-05, -1.0000859656899899, 1.0000726781818954, -6.612940053124663e-05, -1.0000859656899896, 1.0000726781818956, -7.462750052866836e-05, -1.0000859656899892, 1.0000726781818956]}, {"children_left": [1, 2, 3, -1, -1, 6, -1, -1, 9, -1, -1], "children_right": [8, 5, 4, -1, -1, 7, -1, -1, 10, -1, -1], "feature": [10, 6, 9, -2, -2, 8, -2, -2, 8, -2, -2], "threshold": [-0.20184537023305893, 0.9809525012969971, -1.6572551131248474, -2.0, -2.0, 0.4443080723285675, -2.0, -2.0, 0.4796871691942215, -2.0, -2.0], "value": [2.6566395611340534e-07, 4.788093377685683e-05, 6.432260135161995e-05, -1.0000793557879062, 1.000067090026346, -6.104511390594854e-05, -1.000079355787906, 1.0000670900263455, -6.888984697401383e-05, -1.0000793557879064, 1.0000670900263455]}, {"children_left": [1, 2, 3, -1, -1, 6, -1, -1, 9, -1, -1], "children_right": [8, 5, 4, -1, -1, 7, -1, -1, 10, -1, -1], "feature": [10, 6, 9, -2, -2, 8, -2, -2, 8, -2, -2], "threshold": [-0.20184537023305893, 0.9809525012969971, -1.6572551131248474, -2.0, -2.0, 0.4443080723285675, -2.0, -2.0, 0.4796871691942215, -2.0, -2.0], "value": [2.4523996688583587e-07, 4.419966377578011e-05, 5.937723238826033e-05, -1.000073254159944, 1.0000619315677295, -5.6351728281901206e-05, -1.000073254159944, 1.000061931567729, -6.359332794603201e-05, -1.0000732541599449, 1.000061931567729]}, {"children_left": [1, 2, 3, -1, -1, 6, -1, -1, 9, -1, -1], "children_right": [8, 5, 4, -1, -1, 7, -1, -1, 10, -1, -1], "feature": [10, 6, 9, -2, -2, 0, -2, -2, 8, -2, -2], "threshold": [-0.20184537023305893, 0.9809525012969971, -1.6572551131248474, -2.0, -2.0, -0.1076493114233017, -2.0, -2.0, 0.4796871691942215, -2.0, -2.0], "value": [2.2638606723410223e-07, 4.0801424574424024e-05, 5.481208328705825e-05, -1.000067621716198, 1.000057169760171, -5.201918939677763e-05, 1.0000571697601714, -1.000067621716198, -5.870402700273216e-05, -1.0000676217161977, 1.0000571697601714]}, {"children_left": [1, 2, 3, -1, -1, 6, -1, -1, 9, -1, -1], "children_right": [8, 5, 4, -1, -1, 7, -1, -1, 10, -1, -1], "feature": [10, 6, 9, -2, -2, 4, -2, -2, 8, -2, -2], "threshold": [-0.20184537023305893, 0.9809525012969971, -1.6572551131248474, -2.0, -2.0, -0.3275661775842309, -2.0, -2.0, 0.4796871691942215, -2.0, -2.0], "value": [2.0898156974808032e-07, 3.7664455536807186e-05, 5.0597921085568904e-05, -1.0000624223739034, 1.0000527740978236, -4.801975372373914e-05, 1.0000527740978236, -1.0000624223739034, -5.4190635382409184e-05, -1.000062422373904, 1.0000527740978236]}, {"children_left": [1, 2, 3, -1, -1, 6, -1, -1, 9, -1, -1], "children_right": [8, 5, 4, -1, -1, 7, -1, -1, 10, -1, -1], "feature": [10, 6, 9, -2, -2, 8, -2, -2, 8, -2, -2], "threshold": [-0.20184537023305893, 0.9809525012969971, -1.6572551131248474, -2.0, -2.0, 0.4443080723285675, -2.0, -2.0, 0.4796871691942215, -2.0, -2.0], "value": [1.9291506194735493e-07, 3.476866909284463e-05, 4.6707760398279836e-05, -1.0000576228259737, 1.0000487164268024, -4.43278108056635e-05, -1.0000576228259739, 1.0000487164268026, -5.002425150673681e-05, -1.0000576228259734, 1.0000487164268026]}, {"children_left": [1, 2, 3, -1, -1, 6, -1, -1, 9, -1, -1], "children_right": [8, 5, 4, -1, -1, 7, -1, -1, 10, -1, -1], "feature": [10, 6, 9, -2, -2, 11, -2, -2, 8, -2, -2], "threshold": [-0.20184537023305893, 0.9809525012969971, -1.6572551131248474, -2.0, -2.0, 1.4365711510181427, -2.0, -2.0, 0.4796871691942215, -2.0, -2.0], "value": [1.7808369376430718e-07, 3.209552210266639e-05, 4.311669060875197e-05, -1.0000531923273732, 1.0000449707545789, -4.091971925015048e-05, -1.0000531923273732, 1.0000449707545789, -4.617819590011735e-05, -1.000053192327373, 1.0000449707545789]}, {"children_left": [1, 2, 3, -1, -1, 6, -1, -1, 9, -1, -1], "children_right": [8, 5, 4, -1, -1, 7, -1, -1, 10, -1, -1], "feature": [10, 6, 9, -2, -2, 1, -2, -2, 8, -2, -2], "threshold": [-0.20184537023305893, 0.9809525012969971, -1.6572551131248474, -2.0, -2.0, -0.837949126958847, -2.0, -2.0, 0.4796871691942215, -2.0, -2.0], "value": [1.6439251974400564e-07, 2.9627897111580585e-05, 3.9801716348775024e-05, -1.00004910249795, 1.0000415130904934, -3.7773655334832575e-05, 1.0000415130904936, -1.0000491024979499, -4.262784033982821e-05, -1.0000491024979505, 1.0000415130904938]}, {"children_left": [1, 2, 3, -1, -1, 6, -1, -1, 9, -1, -1], "children_right": [8, 5, 4, -1, -1, 7, -1, -1, 10, -1, -1], "feature": [10, 6, 9, -2, -2, 3, -2, -2, 8, -2, -2], "threshold": [-0.20184537023305893, 0.9809525012969971, -1.6572551131248474, -2.0, -2.0, 0.8984751254320145, -2.0, -2.0, 0.4796871691942215, -2.0, -2.0], "value": [1.517538917291423e-07, 2.73499927350992e-05, 3.6741610242785455e-05, -1.0000453271404517, 1.0000383212832527, -3.486947325332238e-05, -1.0000453271404517, 1.0000383212832524, -3.935045014268928e-05, -1.0000453271404517, 1.0000383212832524]}, {"children_left": [1, 2, 3, -1, -1, 6, -1, -1, 9, -1, -1], "children_right": [8, 5, 4, -1, -1, 7, -1, -1, 10, -1, -1], "feature": [10, 6, 9, -2, -2, 0, -2, -2, 8, -2, -2], "threshold": [-0.20184537023305893, 0.9809525012969971, -1.6572551131248474, -2.0, -2.0, -0.1076493114233017, -2.0, -2.0, 0.4796871691942215, -2.0, -2.0], "value": [1.4008689818957776e-07, 2.5247222472043433e-05, 3.391677697449377e-05, -1.0000418420725592, 1.000035374896889, -3.2188576106690115e-05, 1.0000353748968893, -1.000041842072559, -3.632503857812199e-05, -1.0000418420725583, 1.0000353748968893]}, {"children_left": [1, 2, 3, -1, -1, 6, -1, -1, 9, -1, -1], "children_right": [8, 5, 4, -1, -1, 7, -1, -1, 10, -1, -1], "feature": [10, 6, 9, -2, -2, 11, -2, -2, 8, -2, -2], "threshold": [-0.20184537023305893, 0.9809525012969971, -1.6572551131248474, -2.0, -2.0, 1.4365711510181427, -2.0, -2.0, 0.4796871691942215, -2.0, -2.0], "value": [1.2931684657599182e-07, 2.3306121297608795e-05, 3.1309127805054044e-05, -1.0000386249718538, 1.0000326550523548, -2.9713796814215966e-05, -1.000038624971854, 1.0000326550523546, -3.353223247516207e-05, -1.0000386249718536, 1.0000326550523546]}]}